{"policy":{"layerSizes":[9,32,6],"weights":[[-0.7951850165695894,-0.3691423226977839,-0.2525729525920849,0.634680744389372,0.30525787270039445,-0.8800496241833166,-0.34111225999143896,-0.29957918024211116,-0.3941920223526354,0.03215903011768761,0.5922626318735672,-0.7470471951745054,0.20686367437813583,0.25347405868387396,0.4647462374056744,-0.03644120326701811,0.4379785196261744,-0.2776063907154649,0.19123322448781638,-0.05905862140692444,0.28066186304619284,-0.21870035385229164,-0.38472152113927605,-0.0016984460050628878,0.34722466592802187,0.2780260399120555,-0.004941390106161785,0.5639153102519562,0.7921789358737928,0.6237297845338904,-0.4056620305154641,-0.14000177714939768,-0.622103057930336,-0.3736806144678101,-0.19071449508541413,-0.29553029369309813,-0.023523098926010892,0.40047986163482335,-0.1490744517673029,-0.7831582050531901,-0.9929566658485379,0.4681067941001444,-0.14945907798827993,0.25210287021906924,-0.36272010315094794,0.21662084072686988,0.5601135749843927,1.1908834388448375,0.43964772980265143,1.2493266288024556,0.339534593093616,0.16576698969549716,-0.6878224851034009,-0.38480228617090795,0.3119232938943139,0.4232692932221344,0.1828080822412439,0.2745002424742929,0.06895242553171946,-0.6480562296457067,-0.032458849880207745,-1.1205001682287385,-0.8074785107776583,-0.05152808895931337,-0.0282383301552844,-0.409313402321373,-0.7827812480452705,0.02631893963614799,0.6288430752974418,-0.19789219351520204,-0.8573359752758667,0.029657103808444475,-0.7909473601888328,-0.3888895814190858,0.2895558201415178,-0.15777981090893237,-0.39462370597869767,-0.041798187590380204,-0.9950969927140736,0.5983984444749554,-0.4719127986449536,-0.2766745103282694,0.23235752803008536,0.010649531748169789,0.5293984891363159,-0.2503972825929667,0.09857053396963844,-0.21680274644282682,-0.8347604957964784,0.554187332666309,0.10245972866497681,-0.38734756167678963,0.023921268905732485,0.36484026597976144,-0.09301604980995984,1.1157018078558305,0.16606445050962926,0.13566868390617756,0.7619963168013191,0.18642891947979653,-0.5164718367247454,-0.6243190039919952,-0.20169927858435094,-0.7077083283745772,-0.10396930194880932,-0.34465688887761803,0.5660597074190641,-0.10648982814010564,-0.21273395352622143,-0.44920723172254584,0.12384619251411372,0.471282444128759,0.5419996260331807,-0.7503918191241187,0.06751769293975905,0.5401988510358853,-0.3896523581952305,-0.23394714900934435,0.0648588366795276,0.06966778233497121,0.19474358967606,0.2179465464509249,0.17105647171840838,-0.7347821168383031,0.7451059094450267,-0.476203846763475,-0.5513269168911742,1.1406634692751632,-0.8677377545193389,0.21729222219452243,-0.6162241621621931,0.11542041771358547,-0.5226996815145202,0.4849800956103705,0.21016221581662595,0.14323609181127844,0.13180511216089613,0.38218262736635694,-0.21581325215233882,-0.5605310091045884,0.6414791893961999,0.33494257881028333,-0.18632483712561285,0.4796709521401793,-0.3806764145124667,-0.21828585598132644,-0.5382827840982071,-0.1654308413185994,-0.8991601435487612,-0.2567728437042578,0.39128302597043496,-0.9703622549000387,0.5652819142374199,0.8574485110050214,0.25686756260850097,0.5902475953229844,-0.23835573092516604,0.15183812474953082,0.20448459245826853,-0.7534202371444895,-0.7931016021856986,-0.4483001801882262,-0.15079546652940065,-0.13536985756252926,-0.11551994912171028,-0.18029283108126476,-0.06912390134815659,0.2223880712244626,0.877527433347827,-0.596825426828633,-0.3658673263062072,-0.2630393954775152,-0.01895574848864369,-0.160444313418565,0.4009782700064451,1.4069410574597545,-0.35990874416637614,-0.26230234010671544,0.6204703740838128,0.7723934822641241,0.27867415860982414,-0.03297325904066709,0.2693203567845426,-0.2792629876611637,-0.40578610178651375,-0.1858188081234481,0.17608867317411067,-0.4256283992384882,-0.906326147188471,-0.39768425889002756,-0.4188128624433963,-0.885529247991512,-0.21011505754687065,1.3093187937199693,-0.2829495584478124,0.1962754465843096,-0.17894135464924266,-0.5623116705777688,0.35109539357269937,0.11619555285372371,-0.3313656110436225,-0.46886125508759463,1.1012919525573432,-0.5228560796875071,-0.2913899890207066,-0.539118508604965,0.3878580876185607,0.4316915764701754,0.01429786584555825,0.248199449360172,-1.0304410894108804,0.07494775705524351,-0.8253359277384933,-0.14515711181381774,-0.3247520103368393,-0.2073516345981197,0.12563592992982456,-0.09220510574068949,-0.2793687476457633,0.7514819467530935,0.6004187087261391,-0.0900419598105111,0.23971170720807783,-0.24133445405893802,0.4313512464083828,0.17225864275004105,-0.4453250053218396,0.5068864679029477,0.4065943168211938,-0.5397879955436469,0.9985484653312704,-0.2623163858963004,0.5227481442474229,0.40616717111794853,0.7578451551538722,-0.548127624796946,-0.17397627954408956,-0.030582485321158034,-0.5405534224835975,1.131997640728209,-0.2233216927803947,0.5533750059405367,-0.4284702710328771,0.11326956222946388,-0.7281875441741389,-0.5511479892930089,0.6528333225781882,-0.3605633844531735,0.14242630775267986,0.31818261344673376,0.11597495434724701,0.9122237752055204,0.22175065809363145,-1.0875540157127646,-0.5268373904802354,1.1156324153062467,0.835742669535267,0.1711510125117263,-0.5616871006859975,-0.24506120509908777,0.508131225399398,0.3778973834174718,-0.3105535060120833,0.4765593979273838,-0.6467937275601833,-0.06972969192948773,0.8214846434882233,-0.6307067176962723,0.4055110845180742,-0.2980327971326329,0.2455682644353432,0.0589247485424194,-0.009169153689225095,0.2976888435567038,0.4943538975136628,0.4808398028434635,1.2017884317729917,0.615800582004242,0.3294838186092508,0.4599577612999159,-0.05671920910771467,-0.16505820907468788,0.4038515133245505,-0.5682837036651057,0.16243617762259688,-0.5692554322077661,-0.3916158582584687,0.40339357822851846],[-0.4638489435044165,-0.24070002930481788,-0.18299905517722276,-0.10859047258220593,0.111825998443694,0.07241924609626756,0.1342160172355443,-0.1516203527936619,-0.02604475388226981,0.1887421892015633,0.1515952459520272,-0.0788425772115216,-0.19503578042939274,-0.0077105299865161455,-0.5946572485864838,-0.017658489984299395,0.17942256937639123,0.16826426124027147,-0.10550643626803789,-0.6960537509402221,0.29818248163752625,0.2891591026706991,-0.11978711217248841,0.28758111163477773,0.1860919709668685,0.0913938033090799,-0.2774304523825026,0.21119113476813342,0.13244577533040408,-0.16804655302683477,0.18895414479606681,0.09341351939636282,-0.3377557157900496,-0.2679004134761947,0.05690859160023725,-0.1182471048335876,-0.02369955125376601,-0.08497424142541198,-0.15357502151176952,0.22014768703119378,-0.004286457769830702,-0.13614861557363345,0.15688738945950043,0.25084781471941436,-0.15658112937800198,0.317269785666999,-0.07243113691845476,0.24166307853607347,-0.055314171455620995,-0.04974783203100548,0.20108266773202052,-0.14676542527865183,0.2859331324815003,-0.249834792633594,0.3722262572322134,0.07539239656593237,-0.08761755647270035,0.37903927497498385,-0.2117773880490196,-0.051037273892217135,-0.037879221384188304,-0.05048675229682375,-0.3376183212102883,-0.030219129865776368,-0.14919526053250673,0.08897873444755418,-0.1369997455089076,0.19124454332100493,-0.1629365147633735,0.1937765417244652,0.1966260245201069,-0.31349183098530636,0.15524938405419478,0.2616270600784615,-0.2646885755228255,0.0006052255625580625,0.1731207937120804,-0.20133535502850172,-0.02014432799853095,0.24262484578642,-0.03781723032639055,0.017350030568303084,-0.0040344740263404625,0.16141933701934685,-0.11922147751724765,0.36899066526254265,-0.30297539617238745,0.002809258759719432,0.26230514212276257,0.0930631965642912,-0.03779176194061758,0.3486787071922094,0.381433472705081,0.06984188457712666,0.16389318063903602,0.17272790092469525,-0.6151446668810445,-0.39168341862313516,-0.09030114998942884,-0.18800213437424373,0.05470127735007199,0.4276542209020071,0.08360971133789911,-0.3027380534424111,0.11929110172716302,-0.4859587361912539,0.3993816379476691,0.09488070163641087,-0.03639154744744274,0.4143269095212552,0.1798332384455599,-0.30906274917198046,-0.24110025835283205,0.050609145035390934,0.1865553071869899,-0.4560163007219647,-0.05242050138991081,0.19890863925347213,-0.15613475130110663,0.001019831159032049,0.0956491287022731,-0.0393712949868059,0.00518663204537898,-0.07636519840007458,-0.06928226385790434,0.0008014409622246171,-0.39924148118024433,0.017846798661563596,-0.017744573678840744,0.2908966525840694,-0.2709615268368497,0.21435639836103398,0.48384725845828347,0.5309167020026243,0.0648288328889944,0.07896758524197246,0.15367519777261154,-0.08780036109060517,-0.3121625372968848,0.06981832897430436,0.15038613051449384,0.23738288762694373,0.524121432997082,0.10142523667780676,-0.3487996691198838,0.12545194219716688,-0.23210845314999404,-0.39334427990884185,-0.016592835993519493,-0.38199923221552506,0.3818379356195826,0.3215400411688945,-0.4096984755010143,-0.3078378462366584,-0.6181651174203675,0.3290185151432364,-0.27989628574461156,0.47777915522626563,-0.11288323053987072,0.41005778665559534,-0.4016542589004731,-0.18005024849778695,0.1962798414144446,0.07068407269594514,0.006671225603881048,0.17197170067681597,-0.2291745016231554,0.10379974498117811,0.345471326254863,-0.05647573183777393,0.31514236965517056,-0.6192383524991496,-0.3014965436404399,-0.16995163214583917,0.1684036572406214,0.34927412275321107,0.19973848308565606,-0.2675587945228635,-0.14396692109189013,-0.055475023794481305,0.004792842676192172,0.16813160639637897,-0.03245986584482722,-0.11493550333793552,0.09435642113069191,-0.08840346906644647,-0.7609165388020777,-0.01974620471826369,0.22728367725247886,-0.08001728508247438,0.13705554938505943,-0.12744544914980274]],"biases":[[0.00451369310755419,0.13325133713553847,-0.12899202042421906,0.034315846531201726,0.07874968342590495,0.08293831518563756,0.0945855715625292,-0.026047925298642787,0,0.01648852084315634,-0.020439504862401613,-0.00270688658892078,0.0012699145541598014,0.011360300048439374,0.10127506236259534,-0.08387648218542205,-0.04575117127397227,0.07302788000285172,-0.03703842572625798,-0.007588061693387653,-0.03597537443244293,-0.03296848083863484,0.02853012612333264,0.06312535016165667,-0.017512511318307264,-0.0225665067468759,0,0.004653836383232941,-0.005321895314253121,0.06598284801708158,-0.04342473745983554,0.02825887362029484],[-0.042822396093923736,-0.13361917875497492,0.1364561653459868,0.02339474353745249,0.28664077303013497,-0.2700501070646786]]},"value":{"layerSizes":[9,32,1],"weights":[[0.1588449751188626,-0.05806733449609321,0.9043807250948587,0.11586172689258176,-0.1830105792668876,0.05001858077630957,-0.4693551460013051,0.3909779033648216,1.2953594776640205,1.0413644571888578,-0.5396952779722882,-1.668865855723566,0.16479959186934104,0.0296958055362137,0.9899009004955354,0.03854789516199056,-0.314485364599249,-0.5378368761770964,0.8269074654989192,-0.4786709056321654,-0.48139394966882304,0.07634071671100771,0.50926478763309,0.6797598609832542,0.3693505860339132,-0.2575241480496225,0.37648669604030616,0.6408229866984962,0.0667886429890739,0.4426368490996714,0.150139201131138,-0.4100920987866481,0.8368343265635815,-1.2712127538500608,-0.6526464611612585,0.2999907399290837,-0.022704211299953293,-0.6548861669632833,0.00900430374298257,-0.30472490100185623,0.9088978187983796,0.09865455549995154,0.3896013345768551,0.5104512999581097,0.34036874888615354,0.989060058304844,-0.04811327227016287,0.25221442442740755,0.5371490240797926,-0.2427531720436204,0.3588888903403424,-0.5318260282969389,0.5701931330736767,0.22822857665536406,0.8533061157751914,0.2379406653220465,-0.2629892697174671,0.215887188465682,-0.39189552743228523,0.37577793432770623,0.6248700521780209,0.01902733225812577,0.23384811798591967,-0.7639593606799076,0.00803593531153853,0.17887966062395058,0.30709310416650587,0.30205488025567007,0.16620922259338336,-0.4666015924327566,-0.7548417581971922,0.20843005568490816,0.3228628808547866,-0.2737421796054233,-0.2607446149406045,-0.5265847477469849,-1.0242153963447875,0.48452277681551287,-0.10568529057000078,0.1018713493513616,-1.0598885664287352,0.19522221731673506,-0.8215030672858655,-0.8436364658992417,0.452195179709753,0.24456913000553102,-0.09722418490645289,0.19434797347454863,0.4701693897387778,0.14733170231637163,0.02314237005392241,-0.11681493791639094,1.2153210993553467,0.0372063007554072,1.2411472773365755,0.612093531500668,0.04993829302362121,0.40300317203727737,0.2211398332408184,-0.025614654018505524,-0.3673592798564751,0.0626400474051907,-0.2996760585187644,0.20638877994195817,-0.39838363196067056,-0.7379872354164592,-0.17619282658469373,0.4786466029576807,0.3407414493321152,0.5105577294255973,-0.5754248673415956,-0.14469927384899142,0.5107830973609929,0.6245913092590395,0.06489701721193869,0.5049130157139442,0.37969798940711663,-0.4370757984336982,-0.5438852181891513,0.022827798625504714,0.56176989713968,-0.0012002987346108683,0.13119789371796198,0.24299926677296937,0.031034308892260443,-0.6692110663133598,0.12951188446585288,-0.3634440693848187,0.5586486752684973,0.2251702715377776,0.5086972143533134,0.5808567690245425,-0.619215567111156,0.7396223789650841,0.4629146073828546,-0.19209862327348132,-0.7675652309673945,-0.15604002789136803,-0.40620223197973787,-0.302824863298843,-0.24381600994093922,-0.5013706127178121,0.5759251431399751,-0.7252394264307876,0.12704680753185424,-0.7871959407549566,0.6655313274376584,0.5680506378324814,0.07388176743356158,0.42395562156465366,-0.7781539484335783,-0.05054133557267986,0.30771086073734744,-0.2777490382966128,-0.04680433136391417,0.4425698231755997,0.19681805087622362,0.29063917864473954,0.4325045318342893,0.13397516103894247,-0.2548557656728035,-0.7365980570543779,0.11257511153721249,0.43376053448443475,0.04889614759277153,0.5328831014027327,0.7201171419730042,0.12539303580122538,-0.5249210778398353,0.15681688136475044,-0.3458431311540958,-0.3184873135624071,0.40808941895976686,-0.8117427073477961,0.3285212447004158,-0.18454379478372646,0.36535748097981574,-1.4888116489529768,-0.14115760833526933,-0.11859596156931451,-0.3367569969096293,0.418683589611526,0.4379094543957096,-0.3784158539946304,-0.10872554624552949,-0.7602918371021465,0.028666716368263432,0.3141645261054296,0.7624390273304334,-0.17613251816053113,-0.21676978028272367,0.24289515583302815,0.77606459954429,-0.5797309384271639,-0.2501412417564432,0.5553712810494632,-0.4058332127502945,0.25984794834976227,0.11805099483833983,-0.6096440327109116,-0.0341825408495214,-0.3959902757136395,0.33914227920656737,-0.5923508382946854,0.4777432115510566,0.20760624405482558,-0.24508333632477056,0.09275079215744611,0.1904218970039708,0.0045891886304473975,0.37188353228153914,0.6682887284925383,0.5225131888636004,-0.24716345846256238,-0.14203792836683868,0.29605419119761067,0.7637019251983622,-0.3087355917516669,-0.10745478685503347,-0.6766115049726025,-0.7276584786004187,-0.18471149178580737,0.6018437823386372,0.31240766068014236,0.297253511275338,0.43990961715941274,-0.042839049467521484,-0.2884884224419244,-0.9441872353314121,0.2246726114509181,-0.5585426680941963,0.49970487812215963,0.2455184197687224,0.18645657685646197,-0.15011277306046958,-0.1857592285682168,0.4500414448235022,0.170160190393266,0.1760269101952015,-0.055145165455043464,1.2433634298719531,1.2630278896543048,-0.639769409281951,0.489767514231001,0.4462651996334892,-0.5403717294639747,-1.028438774634264,0.010175228370589538,-0.29333522412447655,0.5413399781947422,-0.2758262373352718,-0.1371983224947749,0.15742041857939676,0.4246533329565827,-0.7788987042758404,-0.4215402607764949,-0.1727118357704721,0.26742060716343763,-0.34775809595715035,0.428538248660661,-0.19340342222089127,-0.01388926850971541,-0.10800941317442202,0.6786882805710208,-0.42194059827562397,-0.741823961618736,-0.21768896027092058,-0.3360786932129564,-0.2704249665632732,0.5171007693395795,0.4320377401816532,-0.2511192638057882,1.1386469555711562,0.10049330608400597,0.31696317641391836,-1.2108825455883307,-0.15061821630307876,0.017333130191863184,0.06873104054632093,-0.22602022056988544,-0.1469922604948114,-0.03034266136910364,-0.3028297476448018,0.4844045608532158,0.26576545023492865,0.4460553788982495,0.06983334951790236,-0.3788852656656686],[-0.02031499243467583,-0.29635197837940663,0.17839359255310697,-0.16942474126007628,-0.08478915975054016,-0.44388949554585927,-0.07179109863334109,-0.12261592026763421,0.1500616481275036,-0.012023730824990139,-0.060924286865478725,-0.3086334938290498,-0.12828016469920286,-0.024738157437680718,0.37456472060636076,0.013430073243509392,0.17314735787750737,0.03202882772459279,-0.3684774945240096,0.11196877256473191,-0.05855582549683809,0.42679173336018456,0.11762546373864373,0.3488634344772632,-0.14355007165096498,0.21827620049545746,-0.6376612202660208,-0.18824021671767224,0.2339016281280997,0.18726603736488712,0.019732744217039445,0.31297709001619006]],"biases":[[-0.007425803736320243,-0.021076605822254187,-0.013586767101298924,-0.017655534458178364,0.005486706469709529,-0.06515066064105582,-0.03467133005952226,0.005453313780496897,-0.0006055651520892432,0.000022307790199872812,0.004477062269414917,0.00666283710897396,-0.008549846783681933,0,-0.01007499132437091,0,-0.0003846337073440706,0.003661593022961809,-0.032735608151130705,0.0005948278632295239,-0.011769805069857213,0.09147814398608275,-0.0007146989787640796,0.0687232967086873,-0.017804479402188305,0.00014082633516793625,-0.16167782004882303,-0.010997559865990818,-0.007421190360221527,0.03470707185223182,0.0028630060121182825,-0.007448498402870747],[0.1522412461922604]]}}